{
  "neuronCounts": [
    2,
    10,
    8
  ],
  "classes": [
    "car",
    "fish",
    "house",
    "tree",
    "bicycle",
    "guitar",
    "pencil",
    "clock"
  ],
  "network": {
    "layers": [
      {
        "inputs": [
          0.324,
          0.4731934731934732
        ],
        "outputs": [
          0.7331672213284826,
          -0.05850957473107461,
          0.05189149377883295,
          -0.7052927377893232,
          0.6969620263860818,
          -0.7583190664314505,
          -0.09617295804157841,
          -0.30340260179128453,
          -0.6021733327025677,
          -0.18147060162060535
        ],
        "biases": [
          -0.020473291306153385,
          -0.18167586717912698,
          0.24735892793441616,
          -0.9820375541630564,
          0.9217980877468626,
          -0.54255371053274,
          -0.11608678257986327,
          -0.24835224858424754,
          -0.5582294076663188,
          0.19090432004918245
        ],
        "weights": [
          [
            0.9599022869086999,
            0.08997111614629905,
            -0.7174243131250893,
            0.9766205127195593,
            0.3402694339421295,
            0.10885425972379315,
            0.48543872708190516,
            -0.6736945863511115,
            -0.2793546208670903,
            -0.3634578841721492
          ],
          [
            0.9354147864487543,
            0.19868332118395804,
            0.07814571711522023,
            -0.08385624907210021,
            -0.7081318254383997,
            -0.5305105633749516,
            -0.2903005447416369,
            0.34494705023960703,
            0.09841000513049902,
            -0.5380770902854528
          ]
        ]
      },
      {
        "inputs": [
          0.7331672213284826,
          -0.05850957473107461,
          0.05189149377883295,
          -0.7052927377893232,
          0.6969620263860818,
          -0.7583190664314505,
          -0.09617295804157841,
          -0.30340260179128453,
          -0.6021733327025677,
          -0.18147060162060535
        ],
        "outputs": [
          0.07154587235305565,
          0.5642370841159422,
          0.06086599543325755,
          0.6248616405600407,
          -0.6982910711616201,
          -1.07499987023892,
          0.47885866049754233,
          0.6627944469926357
        ],
        "biases": [
          -0.7309130794224052,
          0.733028903133718,
          -0.921264658037833,
          0.41682490949081075,
          -0.16711453551089006,
          -0.5661504489490987,
          0.9538325434718571,
          0.0423198425763327
        ],
        "weights": [
          [
            -0.07340935757872336,
            0.30096370767759373,
            -0.4160228719671841,
            0.41803892861939707,
            -0.9927554132279428,
            -0.0896616560257475,
            -0.25108094913511536,
            0.207421229998332
          ],
          [
            0.2993637053359275,
            -0.16236678518627512,
            0.467613330797493,
            -0.5341842365928389,
            0.2228999405729888,
            0.4438205061866607,
            0.5579335420723024,
            -0.689561046568874
          ],
          [
            -0.6916285085647389,
            -0.36833493400388395,
            0.2138013662742706,
            -0.9668479415357893,
            0.07360913423982884,
            -0.8069125209985364,
            -0.038092394575639066,
            0.8746661062973566
          ],
          [
            -0.255272198724227,
            0.9159525089035618,
            -0.6677004090513909,
            0.42611847188627694,
            0.21509886490761598,
            -0.6755905109274858,
            0.2272677860213621,
            0.764883597813232
          ],
          [
            0.10331826310398151,
            0.7574981141337576,
            0.5529319448777037,
            0.38453855276509197,
            -0.1434454672367793,
            0.12099774545526865,
            -0.034686422614485846,
            0.12614831778917646
          ],
          [
            -0.4797523829700858,
            -0.2954169431560594,
            -0.8552029037963949,
            -0.7034334118263597,
            -0.6304056419045412,
            0.5544640536084291,
            -0.15546333260226275,
            -0.8060022124924928
          ],
          [
            -0.2609753214445285,
            0.5444566048548296,
            0.15845991613143307,
            0.8302099068999196,
            0.5728134432500727,
            -0.6648940947436062,
            -0.3078396961283283,
            0.0019166341608305437
          ],
          [
            -0.09017141458992173,
            -0.6014123490927115,
            -0.12431258763881159,
            0.39370201664359517,
            0.5757172217242688,
            0.9934440897663013,
            0.3883482284628794,
            -0.6229692708042536
          ],
          [
            -0.3286796024968246,
            0.799504879837607,
            0.31540038799240433,
            0.5146118550030252,
            -0.06463667916227855,
            0.38427973477334376,
            0.14431556029521087,
            -0.3224748466680043
          ],
          [
            -0.23943575694460906,
            0.7409229066310501,
            0.18710807757388492,
            0.3926663355937414,
            -0.938869205874723,
            0.2576744755893019,
            0.08029298245312377,
            0.8817186005190183
          ]
        ]
      }
    ]
  }
}