{
  "neuronCounts": [
    5,
    8
  ],
  "classes": [
    "car",
    "fish",
    "house",
    "tree",
    "bicycle",
    "guitar",
    "pencil",
    "clock"
  ],
  "network": {
    "layers": [
      {
        "inputs": [
          0.324,
          0.4731934731934732,
          0.016019694347486884,
          0.8522263107983596,
          0.19081666634018296
        ],
        "outputs": [
          0.6074971455411953,
          0.38453278786156864,
          0.9162264447772106,
          0.7156953814722677,
          0.2885276604790548,
          0.503074473289164,
          0.6296909664406845,
          -0.08202158741872378
        ],
        "biases": [
          0.6136578104741544,
          0.4881992161602091,
          0.3522557894742544,
          0.14507663434117957,
          0.07149927935671752,
          -0.1506973588738636,
          0.9791066877086987,
          -0.9699719974848735
        ],
        "weights": [
          [
            0.844738760778021,
            -0.2880961588645432,
            0.25178720710766367,
            0.597322753922835,
            0.8312932310232859,
            -0.37813391392548823,
            -0.4619651128282536,
            -0.7273795216965064
          ],
          [
            -0.9707373627253122,
            0.5010380460654735,
            0.36030731863158616,
            0.7313277010129764,
            0.9877573381391658,
            0.8457886722760026,
            0.1351560385695998,
            0.5699722077511256
          ],
          [
            -0.848098923651377,
            0.05456670883632597,
            -0.8107055297879837,
            -0.7574363930221502,
            -0.10979855920408843,
            -0.5431973146952469,
            0.8177625268246058,
            -0.9117875456647506
          ],
          [
            0.2889559931137673,
            -0.49451758058428563,
            0.3800137833863997,
            0.2091425460047489,
            -0.8072843078567611,
            0.45727091367140726,
            -0.20246606671951461,
            0.9698889560220594
          ],
          [
            -0.2786918704714356,
            0.9074445571444558,
            0.005377092182496934,
            -0.7078847121915119,
            0.8911009653090889,
            -0.02584107606243702,
            -0.5463221774662115,
            0.21987553921603098
          ]
        ]
      }
    ]
  }
}